#IID	PC1	PC2	PC3	PC4	PC5	PC6	PC7	PC8	PC9	PC10
004_CB_ATP_CHN_F	0.0765085	0.193343	-0.018612	0.0600535	0.0884595	-0.0486127	0.000131963	0.00533949	-0.0858948	0.0229558
005_CB_ORW_CHN_M	0.0937407	0.162532	-0.102428	-0.0722049	0.0367562	0.0101884	-0.419595	0.0132941	0.182214	-0.0501022
006_CB_ATP_CHN_F	0.0777761	0.182455	-0.0219836	0.0571298	0.0868417	-0.0408584	-0.00469332	0.0104966	-0.0740733	0.0207162
007_CB_ATP_CHN_F	0.0766419	0.192571	-0.0175568	0.0640871	0.0902001	-0.050822	0.00677521	0.0130869	-0.0911235	0.0226078
008_CC_RED_FIN_M	-0.0498606	-0.00409136	0.0285682	0.0376311	-0.0329348	0.0594252	-0.0504456	0.0712895	-0.0752455	0.0159208
009_CC_RED_FIN_M	-0.0501729	-0.006978	0.0266073	0.0340761	-0.0353892	0.0609298	-0.0505382	0.0664228	-0.0676262	0.0152294
010_CC_RED_FIN_F	-0.0478088	-0.00442298	0.027644	0.032974	-0.0346449	0.0507686	-0.046517	0.0528995	-0.0372271	0.0234396
013_CC_GRW_HUN_F	-0.0642858	0.000787892	0.0373875	-0.0916836	0.0584772	-0.041128	0.00279017	0.0184552	0.0114792	0.0384293
014_CC_GRW_HUN_F	-0.064329	0.000499075	0.0279714	-0.0893181	0.055643	-0.0447859	-0.00355392	0.0382554	0.0193638	0.10476
016_CC_GRW_HUN_F	-0.0653542	0.00278194	0.0550489	-0.162181	0.0955239	-0.12273	0.0337915	0.142416	-0.0222242	-0.246339
017_CC_GRW_HUN_F	-0.0659745	-0.000723167	0.0452319	-0.178652	0.101719	-0.135829	0.0180425	0.171436	-0.174656	-0.340567
018_CC_GRW_HUN_M	-0.0660298	0.00273283	0.0485181	-0.17467	0.104194	-0.148544	0.0416606	0.155971	0.171169	0.488339
022_CC_RED_FIN_F	-0.0499622	-0.00746428	0.0389505	0.0513988	-0.056161	0.119308	-0.111867	0.209497	-0.263928	0.0960257
023_CC_RED_FIN_F	-0.0498128	-0.00482112	0.0282512	0.03695	-0.0427632	0.0715165	-0.0606396	0.11553	-0.106299	0.0257403
024_CC_RED_FIN_M	-0.0497071	-0.00590974	0.0257649	0.0314889	-0.0279916	0.0392585	-0.0348226	0.0550955	-0.032239	0.0247204
028_CC_BRA_FIN_F	-0.0469093	-0.00742454	0.02344	0.0381629	-0.0339956	0.0417459	-0.03751	0.0562101	-0.0325491	0.0154646
029_CC_BRA_FIN_F	-0.0454722	-0.00753063	0.0274554	0.0404247	-0.0385457	0.0451462	-0.0399347	0.0606102	-0.0418945	0.0126173
030_CC_MPT_NOR_F	-0.0558351	-0.00836033	-0.0154917	0.0451389	-0.0302543	0.0361679	-0.034317	0.0569719	-0.0433114	0.00225276
031_CC_MPT_SWE_F	-0.0512615	-0.00898809	0.00602153	0.0426027	-0.0277709	0.0439357	-0.0304332	0.057863	-0.032503	0.0225431
032_CC_MPT_NOR_M	-0.0544798	-0.0106757	-0.0215139	0.0426855	-0.0311564	0.0300088	-0.0294772	0.0572284	-0.0391839	0.00563684
033_CC_MPT_NOR_M	-0.0542243	-0.00637763	-0.0057748	0.0379987	-0.0309788	0.0356764	-0.0346069	0.0540243	-0.0339598	0.0218644
034_CC_MPT_NOR_F	-0.0537487	-0.00492861	-0.0030348	0.0393932	-0.0296892	0.0399712	-0.0271478	0.0701425	-0.0383411	0.0108585
035_CC_MPT_NOR_F	-0.0547828	-0.00763419	-0.0152995	0.0411443	-0.0318681	0.033356	-0.0300309	0.0545807	-0.0320871	0.00162935
036_CC_MPT_NOR_F	-0.0579937	-0.0084768	-0.0404557	0.0470179	-0.0298869	0.0172552	-0.0214606	0.0537026	-0.043914	0.00823164
037_CC_ERW_DNK_M	-0.0636556	-0.00639576	-0.0349486	0.0240769	-0.0155368	0.0242849	-0.0304059	0.0343043	-0.0536488	0.0208655
038_CC_ERW_DNK_F	-0.0625573	-0.00555206	-0.0280878	0.0266908	-0.0156559	0.0295079	-0.0229064	0.0409943	-0.0382337	0.0207751
039_CC_ERW_DNK_F	-0.0631857	-0.00606868	-0.0272585	0.0245647	-0.016123	0.0274025	-0.034523	0.0490247	-0.0500577	0.0215774
042_CC_GRW_HUN_F	-0.0630646	0.00152931	0.0392707	-0.0853942	0.0518251	-0.0280739	-0.00542712	-0.00424195	-0.0179451	-0.045637
043_CC_RED_FIN_F	-0.0499749	-0.00379317	0.0347239	0.0453279	-0.0434902	0.0955993	-0.0920579	0.135912	-0.191777	0.0698419
053_CC_RED_FIN_F	-0.0477277	-0.00902493	0.0253359	0.0313415	-0.0369357	0.0462228	-0.0308633	0.033907	-0.0278619	-0.00238163
056_CC_COR_BGR_F	-0.0615172	3.25449e-05	0.0204834	-0.0248096	0.0187828	0.0143233	-0.0143471	-0.0673004	-0.0137507	-0.00777326
057_CC_COR_BGR_F	-0.0615078	0.000271308	0.018044	-0.0208753	0.00876052	0.0211587	-0.0266968	-0.0855411	-0.0329631	0.0068524
058_CC_COR_BGR_F	-0.0614434	0.00101785	0.0235199	-0.0278347	0.0151598	0.0283916	-0.0129579	-0.114383	-0.0439514	0.00287805
059_CC_COR_BGR_M	-0.0613426	8.81153e-05	0.0174482	-0.0223041	0.0120809	0.0167181	-0.010331	-0.0544414	-0.0165103	-0.0210011
061_CC_GRW_BGR_F	-0.0573579	0.00509913	0.0390437	-0.0162125	0.0139016	0.0321157	-0.0146555	-0.0886375	0.00443571	-0.00936508
062_CC_GRW_BGR_F	-0.0609216	0.00260032	0.0476356	-0.0579021	0.0378663	0.029133	-0.0378256	-0.38742	-0.0955155	0.0697363
063_CC_GRW_BGR_F	-0.0600799	0.00192964	0.042503	-0.0430326	0.0247775	0.0222689	-0.0274763	-0.233166	-0.0581311	0.0184259
064_CC_GRW_BGR_M	-0.0620431	-0.000414121	0.0364205	-0.0439201	0.0236703	0.0318654	-0.0402143	-0.328381	-0.0777835	0.0703916
065_CC_GRW_BGR_M	-0.0599794	0.000903169	0.0396935	-0.0400708	0.0195148	0.0181087	0.00169978	-0.0866525	0.0100579	-0.0356572
066_CC_GRW_BGR_F	-0.0613598	0.00231675	0.0562585	-0.0672848	0.0386923	0.032997	-0.0418829	-0.480682	-0.109918	0.0927205
067_CC_GRW_BGR_M	-0.0600489	0.00237737	0.0349365	-0.0367843	0.0160933	0.0148886	-0.0129738	-0.0711793	-0.00287081	0.0122886
069_CC_GRW_BGR_F	-0.0597042	0.00150145	0.0327363	-0.03816	0.0196002	0.0178989	-0.0131073	-0.097147	-0.0175729	0.0074902
070_CC_GRW_BGR_F	-0.0570897	0.00414945	0.0387045	-0.0258771	0.0117676	0.0308198	-0.00887987	-0.0974326	0.00657225	0.0156962
071_CC_GRW_BGR_F	-0.0617655	-0.00173891	0.0243154	-0.0370117	0.0214051	0.00748602	-0.00944701	-0.0520462	-0.00230319	-0.0219566
074_CC_MSH_BGR_F	-0.0604734	0.000766019	0.037099	-0.0371087	0.0216814	0.018168	-0.0156307	-0.138073	-0.0281082	0.00481682
078_CC_MSH_BGR_M	-0.0600343	0.000724995	0.0223604	-0.0270618	0.0136715	0.0162103	-0.00400062	-0.0678785	-0.00792936	-0.0171485
082_CC_ERW_CZE_F	-0.0645298	-0.00663571	-0.0199217	-0.0035625	0.00156506	0.0117331	-0.00614658	-0.00221272	-0.0199487	0.00118277
083_CC_ERW_DEU_M	-0.064006	-0.00727917	-0.0231307	0.00732018	-0.00365156	0.0142599	-0.0171489	-0.0110475	-0.0203808	0.000217037
084_CC_BRA_FIN_M	-0.0426466	-0.00739115	0.027833	0.0351696	-0.0357594	0.0417601	-0.0249914	0.024287	-0.00601215	0.00707871
085_CC_RED_FIN_M	-0.0501565	-0.00566907	0.0223465	0.0395554	-0.035539	0.0586643	-0.0497244	0.0502466	-0.0593175	0.0297858
086_CC_RED_FIN_F	-0.0497689	-0.00898414	0.024752	0.0427342	-0.0402823	0.0575565	-0.0440447	0.0609125	-0.0515708	0.0230701
092_CC_RED_FIN_M	-0.0489688	-0.00985196	0.0354758	0.0561219	-0.0582722	0.126007	-0.115427	0.200959	-0.27242	0.102215
096_CC_GRW_HUN_F	-0.0650614	0.00135465	0.0480006	-0.17377	0.100534	-0.145496	0.0532059	0.160805	0.19765	0.560196
098_CC_ERW_POL_M	-0.060741	-0.00417576	-0.00335913	0.0135393	-0.011248	0.035558	-0.0289822	-0.014321	-0.0183083	-0.00353542
100_CC_ERW_POL_F	-0.0606429	-0.00337416	-0.000265677	0.0101745	-0.0106614	0.0335619	-0.0164201	0.00720218	-0.0221274	0.00876718
102_CC_ERW_SPA_F	-0.0685064	-0.00522303	-0.0503658	-0.00821781	0.00886249	-0.000624626	-0.0115411	-0.0262533	-0.0258709	0.00422125
104_CB_ORW_CHN_M	0.094455	0.161078	-0.105489	-0.0669025	0.0337398	0.00926791	-0.408881	0.0028545	0.182594	-0.0486254
105_CB_ORW_CHN_F	0.0928654	0.158012	-0.0956013	-0.057029	0.034053	-0.000256221	-0.351819	0.00149716	0.15678	-0.0415559
108_CB_ORW_CHN_F	0.09407	0.159568	-0.0992336	-0.0658053	0.0342702	0.00471655	-0.384183	0.00354193	0.170148	-0.0455021
113_CC_UNK_ENG_F	-0.07127	-0.0143091	-0.142044	0.0592364	-0.0192677	-0.0341541	0.0351233	-0.00134483	0.026535	0.000125459
114_CC_UNK_ENG_M	-0.0713308	-0.0177473	-0.161742	0.07391	-0.0170401	-0.0441045	0.0499318	-0.0108492	0.0512256	-0.0172453
115_CC_UNK_ENG_M	-0.0711713	-0.0149718	-0.130621	0.051355	-0.00984254	-0.0240602	0.0215392	-0.0130061	0.0148662	-0.00968959
116_CC_UNK_ENG_M	-0.0724516	-0.0177828	-0.163758	0.0758683	-0.0184379	-0.0506447	0.0450308	-0.0121367	0.0644125	-0.011329
118_CC_UNK_ENG_M	-0.0712625	-0.0160163	-0.151261	0.062166	-0.0138944	-0.0313438	0.0303626	0.00361003	0.020517	-0.0112227
119_CC_UNK_ENG_F	-0.0728054	-0.0163211	-0.186565	0.0861283	-0.024716	-0.061201	0.0604108	-0.0141163	0.082541	-0.0208221
120_CC_UNK_ENG_F	-0.0719928	-0.0178951	-0.155044	0.0640215	-0.0201596	-0.0377459	0.0299209	0.00144092	0.0192686	-0.00969217
121_CC_UNK_ENG_M	-0.073474	-0.0203611	-0.225532	0.102717	-0.0245726	-0.0929341	0.0953073	-0.0179487	0.161442	-0.0503321
123_CC_UNK_ENG_M	-0.0707653	-0.0120984	-0.114102	0.0411661	-0.00963435	-0.0239135	0.0169072	-0.017556	0.0157487	0.00481574
124_CC_UNK_ENG_M	-0.0722675	-0.0150006	-0.148664	0.0619523	-0.0158566	-0.0360322	0.0273235	-0.00429567	0.0234663	-0.00851182
125_CC_UNK_ENG_M	-0.0720239	-0.017246	-0.161363	0.0642506	-0.015529	-0.0383404	0.0431583	-0.0010004	0.0231918	-0.00285892
126_CC_UNK_ENG_M	-0.0727138	-0.0169995	-0.181483	0.0803897	-0.0229019	-0.0603986	0.0651137	-0.0169966	0.108995	-0.0252232
127_CC_UNK_ENG_M	-0.0725099	-0.0174763	-0.146165	0.0627095	-0.0191707	-0.0391138	0.0285375	-0.0149829	0.0191126	-0.0130651
130_CC_UNK_ENG_M	-0.0711133	-0.0188854	-0.15206	0.0668049	-0.0248872	-0.0350947	0.0246759	-0.00162369	0.0246521	0.00349577
131_CC_UNK_ENG_M	-0.0714786	-0.0174615	-0.145723	0.0601955	-0.0207057	-0.0367428	0.0304584	-0.0097628	0.0226741	7.42829e-05
132_CC_UNK_ENG_M	-0.0708996	-0.016655	-0.158026	0.0703088	-0.0176603	-0.0425963	0.0272221	-0.0126088	0.0264654	-0.0138735
133_CC_UNK_ENG_M	-0.071703	-0.0166362	-0.157239	0.0621187	-0.0253483	-0.0380546	0.0353731	-0.00569154	0.023394	-0.00976306
134_CC_UNK_ENG_M	-0.0721735	-0.0169006	-0.153351	0.0700421	-0.0182648	-0.0323316	0.0255834	-0.00212767	0.0173054	-0.00442677
135_CC_UNK_ENG_M	-0.0704792	-0.0135237	-0.150438	0.0672778	-0.0159057	-0.0325737	0.0218299	0.00178598	0.018748	-0.00313977
136_CC_UNK_ENG_M	-0.0719982	-0.0183755	-0.151389	0.0629324	-0.0194963	-0.0341141	0.0299289	-0.011088	0.0164466	0.00301786
138_CC_UNK_BLR_M	-0.0514667	-0.0035522	0.0290716	0.020581	-0.022743	0.0438037	-0.0150141	0.0192268	-0.0112204	-0.00341143
140_CC_UNK_BLR_M	-0.0475253	-0.00797795	0.033635	0.0276085	-0.0274606	0.054248	-0.0206689	0.0180206	-0.0012376	0.00640681
141_CC_UNK_RUS_M	0.0115875	-0.0112853	0.107838	0.053914	-0.0500777	0.0306731	-0.0138487	0.0185964	0.0499403	-0.0189076
142_CC_UNK_RUS_M	0.090869	-0.111622	0.0902961	0.103024	-0.0887478	-0.268496	-0.0690402	-0.0374144	-0.0224331	0.00960259
143_CC_UNK_RUS_M	0.0904682	-0.116078	0.098845	0.115864	-0.0983396	-0.305041	-0.0814391	-0.0424125	-0.0266809	0.00617733
145_CC_GRW_BGR_M	-0.0581429	0.00212029	0.0395283	-0.0365767	0.0144172	0.0202172	-0.0104227	-0.0697603	0.0181717	0.0103677
149_CC_GRW_BGR_M	-0.0573964	0.00330585	0.0354505	-0.0350192	0.0182803	0.0160962	0.00201469	-0.0577091	0.00859225	-0.00440888
150_CC_GRW_CZE_F	-0.0636367	-0.00609447	0.00152092	-0.0129035	0.00574108	0.00931177	-0.00328645	-0.00866943	-0.00806275	0.0174214
151_CC_GRW_CZE_F	-0.0608979	-0.00473312	0.00751422	-0.00324517	-0.00367775	0.030499	-0.0177284	-0.00101583	-0.00279323	0.00843509
152_CC_GRW_CZE_F	-0.0612767	-0.0100706	0.0038102	-0.0072325	0.0048908	0.00325561	0.0129798	-0.00651428	0.0165662	-0.0182377
153_CC_ERW_CZE_F	-0.0618376	-0.00425171	-0.00470275	-0.00241935	-0.00170127	0.0176513	-0.0103277	-0.00569464	-0.0153896	-0.0103858
157_CC_GRW_CZE_M	-0.0622015	-0.00426354	-0.00323078	0.00120609	-0.00189811	0.017049	-0.0111461	-0.00285462	-0.000616897	-0.00767446
159_CC_UNK_MON_M	0.0533341	-0.00477544	0.0603291	0.0349183	-0.0321607	-0.0122514	0.014929	-0.00031087	0.0191171	-0.00221004
160_CC_UNK_MON_M	0.0542486	-0.00675131	0.0595748	0.0356705	-0.033693	-0.0139955	0.00677117	0.00123195	0.0177497	-0.00512043
161_CC_UNK_MON_M	0.0551501	-0.00726856	0.0579389	0.0330111	-0.0355877	-0.0166602	0.0036057	0.00502899	0.0183631	-0.00448045
162_CC_UNK_MON_M	0.0561071	-0.00861233	0.0558962	0.0380571	-0.0340297	-0.0147072	0.0060372	0.00333357	0.0156106	-0.00075387
164_CC_ORW_CHN_M	0.091832	0.0189722	-0.0427768	-0.0951611	-0.100776	0.0310185	0.0656912	0.00204753	-0.0224267	0.00473329
169_CC_ORW_CHN_M	0.0898822	0.013482	-0.0347922	-0.0893174	-0.0984715	0.0275382	0.0598014	-0.00428775	-0.0185315	0.00375897
175_CC_ORW_CHN_M	0.0901836	0.00806497	-0.0316155	-0.0788085	-0.083921	0.0205392	0.0570668	-0.00647985	-0.0168736	0.00155349
182_CB_GBC_CHN_M	0.0624454	0.240469	0.0180293	0.111121	0.111222	-0.0556216	0.0924332	-0.00284787	-0.103736	0.0242061
183_CB_OMR_CHN_M	0.0631886	0.240147	0.0146839	0.108353	0.109309	-0.054826	0.0912722	-0.00839614	-0.0891824	0.0233503
184_CC_IBS_CHN_F	0.00770412	0.0919846	0.163111	0.111488	-0.01724	0.100595	0.141041	0.0133135	0.288927	-0.074427
185_CB_OMR_CHN_F	0.065561	0.231166	0.0106131	0.105481	0.112522	-0.0563247	0.0762112	-0.00367775	-0.0851606	0.0224524
186_CC_ORW_CHN_F	0.0923533	0.0277205	-0.0509392	-0.0997211	-0.101265	0.033199	0.0407821	0.00362946	-0.0120402	0.00448367
188_CC_ORW_CHN_F	0.0927042	0.017768	-0.0477949	-0.101929	-0.110162	0.0361385	0.0639911	-0.00563886	-0.0177967	0.00345921
189_CC_ORW_CHN_F	0.0920192	0.0135391	-0.0430286	-0.103967	-0.113144	0.0314486	0.0759999	-0.00422124	-0.0225476	0.00383137
193_CC_ORW_CHN_F	0.0872996	0.0201107	-0.0271798	-0.0633485	-0.0789282	0.0142262	0.040111	-0.00383725	-0.00668175	0.0114059
194_CC_ORW_CHN_F	0.0923257	0.0233797	-0.0533496	-0.116681	-0.124027	0.0368936	0.0729154	-0.001778	-0.0219414	0.0107183
195_CC_ORW_CHN_F	0.0919933	0.0124882	-0.0438981	-0.101949	-0.110324	0.0356378	0.0726398	0.00230992	-0.0206906	0.00624598
196_CC_ORW_CHN_F	0.0899632	0.0128547	-0.0350269	-0.0860488	-0.0960125	0.0233394	0.0606724	0.000970522	-0.020553	0.00127774
197_CC_ORW_CHN_F	0.0897129	0.0172303	-0.038922	-0.0935823	-0.0966651	0.0301489	0.0596441	-0.00372647	-0.0221378	0.00684472
199_CC_ORW_CHN_F	0.0929276	0.0227101	-0.0543682	-0.123614	-0.130444	0.0361739	0.074494	-0.000323519	-0.0227953	0.0104184
200_CC_ORW_CHN_F	0.0906859	0.0212458	-0.0430625	-0.0903894	-0.0954393	0.0254456	0.0453937	-0.00685964	-0.0149012	0.00317691
202_CC_ORW_CHN_F	0.0911729	0.0180721	-0.0401862	-0.0986594	-0.0997637	0.0317526	0.0556228	-0.00189123	-0.00867674	0.00255431
205_CC_ORW_CHN_F	0.0906454	0.0599087	-0.0475276	-0.0595636	-0.0406854	0.0128229	-0.0497957	-0.00462115	0.0231072	-0.00582721
206_CC_ORW_CHN_F	0.0918599	0.0224665	-0.0464652	-0.104594	-0.101363	0.0400862	0.0620283	-0.00833185	-0.0143154	0.00742405
207_CC_ORW_CHN_F	0.0939196	0.0140801	-0.0480693	-0.115273	-0.118672	0.0402434	0.0729601	0.00461	-0.0249517	0.00924231
208_CC_ORW_CHN_F	0.0926439	0.0203461	-0.0467008	-0.105768	-0.108732	0.0379124	0.055448	-0.00640822	-0.010779	0.00464099
215_CB_GBC_CHN_F	0.062028	0.243265	0.0177781	0.106786	0.111585	-0.0578543	0.0847999	-0.00489396	-0.0964893	0.0197114
216_CB_GBC_CHN_F	0.0632097	0.244279	0.0136555	0.112135	0.109429	-0.0579839	0.0882815	-0.0021727	-0.0987314	0.0230936
217_CB_ASC_CHN_F	0.0645828	0.238621	0.0130756	0.109078	0.112603	-0.0624151	0.0856241	-0.00323817	-0.0908516	0.0244389
218_CC_IBS_CHN_M	0.00685791	0.0943108	0.168705	0.122265	-0.0239481	0.113782	0.161403	0.0202026	0.317813	-0.0809759
225_CC_IBS_CHN_F	0.0082123	0.0945074	0.173803	0.12246	-0.0195398	0.116592	0.169383	0.0244653	0.329085	-0.0801732
230_CB_ASC_CHN_M	0.0639885	0.246676	0.0138933	0.114492	0.114377	-0.0637215	0.101383	-0.00536875	-0.101295	0.0283935
231_CC_ORW_CHN_F	0.0912866	0.0185866	-0.0411749	-0.0901451	-0.0997398	0.0335707	0.0556761	-0.00430182	-0.0210454	0.00524419
232_CC_ORW_CHN_M	0.0909459	0.0169333	-0.0407027	-0.0873252	-0.0964198	0.0281919	0.0557641	-0.00296461	-0.0142616	0.0045547
238_CC_ORW_CHN_F	0.0908582	0.0207631	-0.0398808	-0.0837213	-0.081907	0.0193559	0.0326542	-0.0012609	-0.0123256	-0.00160261
240_CC_ORW_CHN_M	0.0916153	0.0350453	-0.0473784	-0.0953902	-0.0917258	0.034367	0.0367553	-0.0033024	-0.0073676	0.00680216
242_CC_ORW_CHN_F	0.0878155	0.0121922	-0.0324041	-0.0791276	-0.0907413	0.0201472	0.0479342	-0.000287537	-0.0177417	0.000751313
244_CC_ORW_CHN_M	0.0905351	0.0130372	-0.0382999	-0.0892839	-0.0934358	0.029902	0.0567125	-0.0030398	-0.011049	0.00167055
250_CC_MWB_RUS_M	0.0940372	-0.0461109	-0.0205016	-0.00016761	0.033674	0.0149364	0.016505	0.00706994	-0.00325308	-0.0142385
252_CC_SRT_RUS_F	-0.000805092	-0.0163485	0.0995561	0.0508506	-0.0515245	0.0314431	-0.0137181	0.019602	0.0397789	-0.0117723
255_CC_SRT_RUS_M	0.0018892	-0.01994	0.105871	0.0555941	-0.05614	0.0372751	-0.0150715	0.0250293	0.0471425	-0.00886434
256_CC_SRT_RUS_F	-0.000517267	-0.0163256	0.107234	0.0582171	-0.0629657	0.0381398	-0.02042	0.0218728	0.0466247	-0.00324287
259_CC_SRT_RUS_F	0.0917123	-0.0967277	0.00645509	0.0394602	0.0801852	0.00522974	-0.002529	-0.00530747	0.000328185	-0.00455735
260_CC_SRT_RUS_F	0.0914247	-0.0972412	0.00739656	0.0436826	0.0814289	0.00313871	-0.010621	-0.00144404	-0.00236509	0.000563274
261_CC_BFB_RUS_F	0.108892	-0.144395	-0.0380004	0.026837	0.197076	0.0951181	0.00625504	0.00764494	-0.00321064	0.00651195
262_CC_BFB_RUS_M	0.0915927	-0.0992022	0.00588593	0.0382406	0.0827453	0.00864805	-0.000749886	-0.00147502	0.00476791	-0.00045058
264_CC_DRD_RUS_M	0.0953092	-0.0537235	-0.0200511	-0.00618421	0.0331075	0.0223086	0.0316095	-0.000352917	-0.000646268	-0.0124204
267_CC_DRD_RUS_M	0.0957081	-0.0541197	-0.0217619	-0.00571648	0.0334684	0.020519	0.0261731	0.00483062	-0.00207471	-0.00866737
269_CC_TBW_RUS_F	0.0916318	-0.0390521	-0.00498556	0.000316772	0.0129811	0.000630483	0.00876082	0.00292892	0.00124158	0.00143582
270_CC_TBW_RUS_F	0.0910822	-0.0375284	-0.00321026	-0.000225608	0.0049031	-0.00711411	0.0140393	-0.00136715	-0.00573413	-0.000472691
272_CC_TBW_RUS_F	0.0896684	-0.0366858	-0.00388637	-0.00271179	0.00836598	-0.0018385	0.00974718	-0.00267886	0.00217619	0.00665098
273_CC_TBW_RUS_F	0.0904646	-0.0288533	-0.0092552	-0.0158938	-0.00566863	0.00557567	0.0194463	-0.00554373	-0.00333892	0.00286358
274_CC_UNK_BLR_M	-0.048755	-0.00336926	0.0335355	0.0291392	-0.0299804	0.047617	-0.0253763	0.020207	0.0202315	-0.000576674
275_CC_UNK_RUS_M	-0.0234006	0.0489766	0.124767	0.059069	-0.0232833	0.0885121	0.0597743	-0.0325611	0.139203	-0.0447323
276_CC_UNK_RUS_F	0.0801695	-0.0829002	0.0749842	0.0778543	-0.0707809	-0.174852	-0.044616	-0.0221032	-0.0113609	-0.00562792
277_CC_UNK_RUS_F	0.0902164	-0.107486	0.0845988	0.100106	-0.0842304	-0.246287	-0.0656554	-0.0342016	-0.0203159	0.00289319
278_CC_UNK_RUS_F	-0.04828	-0.00301345	0.0333859	0.0320909	-0.0311559	0.0484881	-0.0200917	0.0266035	-0.0017342	-0.00187379
279_CC_UNK_RUS_F	-0.0334254	-0.0107375	0.0475015	0.0393464	-0.0359881	0.0384481	-0.0242832	0.0282596	0.0145846	0.00298436
280_CC_UNK_RUS_F	-0.0490361	-0.00495338	0.0302522	0.0357049	-0.027945	0.0458609	-0.0228848	0.0344289	-0.00519297	-0.00169594
281_CC_UNK_RUS_M	-0.00748734	-0.0154248	0.0879303	0.0511232	-0.0488441	0.0348524	-0.0131258	0.0239954	0.0389416	-0.0236856
282_CC_UNK_RUS_M	0.0893994	-0.106318	0.0876083	0.0983409	-0.0846391	-0.248157	-0.0626691	-0.0330417	-0.020494	0.00666106
283_CC_UNK_RUS_F	0.0913017	-0.0355435	-0.00588454	8.61518e-05	0.00123229	-0.00817953	0.0125057	-0.000524031	-0.00241626	0.00133411
284_CC_UNK_RUS_M	0.0905876	-0.0360975	-0.00601102	0.00133421	0.00481637	0.00275278	0.0166799	-4.99642e-05	-0.00125887	0.000672349
285_CC_UNK_RUS_F	0.0890773	-0.0365693	-0.0012711	0.00526131	0.00398684	-0.0052632	0.00562665	-0.00328349	-0.00148501	-0.000113857
286_CC_UNK_RUS_F	0.0980583	-0.0553243	-0.0315462	-0.0149712	0.0516046	0.0430578	0.0179003	0.00266447	-0.000343395	0.00607624
287_CC_UNK_RUS_M	-0.0455884	0.00379556	0.0660228	0.0118782	-0.0152746	0.0584335	-0.0144349	-0.0358524	0.0328155	-0.0143223
289_CC_UNK_RUS_M	0.106483	-0.144419	-0.0318055	0.0350141	0.190281	0.0853825	0.00984771	0.0113967	0.0025185	0.00470344
290_CC_UNK_RUS_M	0.104255	-0.147405	-0.0315176	0.037508	0.199066	0.0906848	0.0109154	0.0137675	0.000465337	0.000898664
291_CC_UNK_RUS_F	0.109434	-0.150807	-0.0402726	0.0323724	0.206363	0.0969505	0.00307357	0.0092109	0.00352481	0.00613532
292_CC_UNK_RUS_M	0.104569	-0.1377	-0.029005	0.034595	0.182085	0.0865492	0.00396294	0.00356663	0.00664954	0.00186537
293_CC_UNK_RUS_M	0.108728	-0.149886	-0.0397886	0.0299676	0.206406	0.0977128	0.00610002	0.00906209	0.00228193	0.000464851
294_CC_UNK_RUS_F	0.101277	-0.123406	-0.0161635	0.0344331	0.14922	0.0597813	0.00337752	0.00885144	0.00335164	-0.000285696
295_CC_UNK_RUS_F	0.11078	-0.155752	-0.0487011	0.0258902	0.217412	0.11213	0.0126889	0.0120669	0.00783798	-0.0026767
296_CC_UNK_RUS_M	0.0900312	-0.0902979	0.00996005	0.0367029	0.0667217	-0.00289498	-0.00924758	-0.00248801	-0.000465035	-0.00148615
297_CC_UNK_RUS_M	0.0181425	-0.0148921	0.105509	0.0537445	-0.0565196	0.0192117	-0.0142333	0.014472	0.032957	-0.0186173
298_CC_UNK_RUS_M	-0.00620212	-0.014526	0.0901839	0.0491597	-0.0513511	0.0385149	-0.0164115	0.0273657	0.036304	-0.0024839
299_CC_UNK_RUS_F	-0.0110963	-0.0102639	0.0903982	0.0433681	-0.0479507	0.0384996	-0.0175691	0.0138512	0.0372193	-0.00387898
300_CC_UNK_RUS_M	0.000257614	-0.0159634	0.0929852	0.0507674	-0.0587172	0.0244052	-0.0168305	0.0243018	0.0356956	-0.016223
301_CC_UNK_RUS_F	0.0206505	-0.00589247	0.0953695	0.0457195	-0.0453113	0.0206904	-0.00110598	0.0140781	0.0425631	-0.0105499
303_CC_UNK_RUS_M	-0.0436019	0.00147283	0.0609548	0.025357	-0.0297618	0.0583371	-0.0130054	0.0023014	0.0222197	-0.0068094
304_CC_UNK_RUS_F	-0.0578632	-0.0042959	0.00555964	0.0181006	-0.0227033	0.048027	-0.0350077	0.013323	-0.0185606	0.000837209
328_CC_SCC_RUS_F	-0.0156639	-0.0112694	0.0752977	0.0478987	-0.0495978	0.0343571	-0.0193949	0.0299622	0.0303852	-0.0115642
375_CC_PLW_RUS_F	0.111751	-0.154726	-0.0448336	0.0268145	0.217616	0.107261	0.00992214	0.00849722	0.000119069	0.00020675
389_CC_ACW_RUS_F	0.0894174	-0.105841	0.0869418	0.0980066	-0.0834533	-0.245589	-0.0628265	-0.0346891	-0.0228927	0.00576732
392_CC_UNK_RUS_M	-0.0420806	-0.00456673	0.0515624	0.032623	-0.0406368	0.0590161	-0.0154808	0.0144229	0.0165139	0.00154554
393_CC_UNK_RUS_F	0.0590732	-0.0545015	0.0763171	0.058935	-0.0507872	-0.0873518	-0.0282183	-0.00997635	0.0147689	-0.00238867
395_CC_UNK_RUS_M	0.091093	-0.114891	0.0943338	0.108669	-0.0967552	-0.289596	-0.0723531	-0.0424998	-0.0225582	0.00301046
396_CC_UNK_RUS_M	-0.0451051	0.016886	0.0618781	0.0174245	-0.008957	0.0537734	0.00933345	-0.0521054	0.0495916	-0.0240144
397_CC_UNK_RUS_M	-0.039114	0.0300382	0.0906383	0.0274185	-0.0119764	0.0695238	0.0276894	-0.0545583	0.0938831	-0.0175789
398_CC_UNK_RUS_M	-0.0418956	0.00125493	0.0628175	0.0298259	-0.0258261	0.0550378	-0.0103759	0.00834879	0.0189854	-0.0124387
399_CC_UNK_RUS_M	-0.0416503	-0.000429447	0.0707039	0.0231685	-0.0320684	0.0610268	-0.0143017	-0.00715165	0.0387984	-0.00835245
408_CC_TBW_RUS_F	0.0904294	-0.0296593	-0.00461517	-0.0076994	-0.00439918	-0.00250551	0.0172594	-0.000749615	-0.00624058	0.00168136
410_CC_GRW_HUN_F	-0.0648563	-0.00248047	0.0344604	-0.115145	0.0702228	-0.0803632	0.0246105	0.0331753	0.0391293	0.093117
411_CC_GRW_HUN_F	-0.0614166	-0.00393742	0.0167858	-0.0448547	0.0267558	-0.0123477	0.00260029	-0.0250874	-0.00799003	0.0187851
412_CC_GRW_HUN_F	-0.0654203	-0.0024938	0.0542453	-0.156557	0.0892944	-0.116425	0.0405012	0.0836978	0.0348857	-0.0982441
413_CC_GRW_HUN_F	-0.0614821	-0.00356148	0.0283804	-0.0738704	0.0493293	-0.0393817	0.0101197	-0.0308299	0.00356907	-0.0183139
414_CC_GRW_HUN_F	-0.0614127	-0.000718631	0.0354418	-0.0807199	0.0446402	-0.0323453	0.00924471	-0.0115983	0.00308214	-0.0548367
415_CC_GRW_HUN_F	-0.0651323	-0.0009726	0.0457822	-0.137277	0.0832889	-0.0993624	0.0315962	0.0651055	0.000360652	-0.153103
416_CC_GRW_HUN_F	-0.0640124	-0.0019008	0.0356602	-0.0831707	0.0421689	-0.0270319	0.00329846	-0.00298482	-0.00218949	-0.02666
417_CC_GRW_HUN_F	-0.0646855	-0.00174949	0.0507431	-0.166705	0.0994164	-0.129538	0.0483949	0.115877	-0.00490041	-0.284412
418_CC_GRW_HUN_F	-0.062208	-0.003438	0.0238842	-0.0713491	0.041028	-0.0345513	0.00662838	0.0109631	0.0132168	0.0248108
419_CC_GRW_HUN_F	-0.0637091	-0.00245979	0.027925	-0.0847639	0.0431016	-0.0493995	0.0141246	0.0108029	-0.0224328	-0.0921369
420_CC_GRW_HUN_F	-0.0605968	-0.00122281	0.0252541	-0.055958	0.0288078	-0.0120014	-0.000867449	-0.0333441	0.00385883	-0.0137473
422_CC_GRW_HUN_F	-0.0625895	-0.00285374	0.03603	-0.115471	0.0745528	-0.0727975	0.0292296	0.0323855	-0.016068	-0.0710922
423_CC_GRW_HUN_F	-0.0637366	-0.00164609	0.0350976	-0.120328	0.0734005	-0.0889154	0.028453	0.0817676	0.0505834	0.0648325
424_CC_GRW_HUN_F	-0.062427	-0.00429183	0.0320535	-0.074715	0.0451711	-0.0262572	0.0106633	-0.0203191	0.00765262	-0.00173947
426_CC_GRW_HUN_F	-0.0592732	-0.00106859	0.0284056	-0.0312096	0.0190498	0.00710898	-0.00325476	-0.0284304	-0.00437384	-0.0136868
427_CC_GRW_HUN_F	-0.0610272	-0.00100634	0.0210997	-0.0489412	0.0291282	-0.0135363	0.00234631	-0.0269199	-0.0109006	-0.0562601
428_CC_GRW_HUN_F	-0.0628662	-0.00271897	0.0354698	-0.106435	0.0565697	-0.0683042	0.0277483	0.0265073	0.029236	-0.0239157
429_CC_GRW_HUN_F	-0.0633195	-0.00158909	0.0439975	-0.136397	0.0797946	-0.104293	0.0410611	0.0669886	0.0266375	-0.0808484
430_CC_GRW_HUN_F	-0.0617818	-0.00524189	0.0221796	-0.0564498	0.0296722	-0.0104021	-0.00386339	-0.0300828	0.00274562	-0.0355895
